{"fc1.weight": [[-0.005246592219918966, 0.026750823482871056, -0.001540982280857861, -0.10932692140340805, 0.0016915241722017527, -0.02469305880367756, -0.18427255749702454, -0.1022818461060524, -0.4809214472770691, -0.053695373237133026, 0.03867439553141594], [-0.00048598728608340025, 0.03423023596405983, 0.01619408279657364, 0.25955256819725037, 0.02987874671816826, -0.005461712833493948, -0.5069586038589478, 0.32227593660354614, -0.14001664519309998, 0.22408001124858856, -0.020388852804899216], [0.0029679599683731794, -0.004881934728473425, -0.11403433233499527, 0.16763976216316223, 0.02162986248731613, 0.003431615885347128, -0.3468506336212158, -0.032230671495199203, 0.0023467810824513435, -0.013609635643661022, 0.004260219633579254], [-0.011382943019270897, -0.01446280162781477, 0.002692163223400712, 0.04418344795703888, -0.0022258434910327196, -0.01836264319717884, -0.10114975273609161, 0.15409675240516663, -0.12533904612064362, -0.512578010559082, 0.1701824814081192], [0.3151083290576935, -0.005469478666782379, 0.012592492625117302, -0.009812867268919945, -0.0001902219810290262, 0.4406188130378723, -0.019445782527327538, 0.004100167192518711, -0.016159968450665474, -0.1229129433631897, -0.0035373088903725147], [-0.005224775522947311, 0.20279943943023682, -0.025934236124157906, 0.03859788924455643, 0.002298246370628476, -0.002535452600568533, 0.13729898631572723, -0.3127765655517578, -0.07160499691963196, -0.03516222909092903, 0.01405451912432909], [-0.002817396307364106, 0.014378497377038002, 0.0005112126818858087, 0.1654631644487381, -0.009831426665186882, 0.0026529410388320684, 0.20635008811950684, 0.008037363179028034, -0.4402045011520386, -1.0521445274353027, 0.024993037804961205], [-0.21382196247577667, 0.04167218133807182, 0.1718652844429016, 0.008922155015170574, 0.01663866639137268, -0.38403674960136414, 0.1432177871465683, 0.007788180839270353, 0.024145089089870453, 0.00014594542153645307, -0.0049523296765983105], [-0.008352076634764671, -0.01136563066393137, -0.004982161335647106, -0.1239030510187149, 0.011171622201800346, 0.0014287447556853294, -0.1729869544506073, -0.029111094772815704, 0.2731730341911316, 0.6612406969070435, -0.0028073699213564396], [2.5923713110387325e-05, 0.005157969426363707, -0.0017360628116875887, -0.013675945810973644, -0.0035552841145545244, 0.00031852166284807026, -0.22947151958942413, 0.5328568816184998, 0.2996470630168915, 0.18833470344543457, 0.0003426600596867502], [0.002195812063291669, -0.010740610770881176, -0.008186696097254753, 0.13778690993785858, -0.16511237621307373, -0.006475267931818962, -0.06634629517793655, 0.09122917801141739, -0.40105000138282776, 0.06729409843683243, 0.2387399971485138], [0.0011607992928475142, -0.005206970497965813, 0.010548493824899197, 0.07561788707971573, -0.004464889410883188, -0.0064065055921673775, -0.20519284904003143, 0.4796096682548523, 0.20033900439739227, 0.45279768109321594, 0.007462480571120977], [-0.003601605072617531, -0.007253464311361313, -0.04112695902585983, -0.24515432119369507, -0.06925124675035477, -0.004847580101341009, -0.2996012270450592, 0.015672339126467705, 0.4514845609664917, -0.017045460641384125, 0.012880228459835052], [0.0016669223550707102, -0.02510545775294304, 0.009162981994450092, 0.136569544672966, -0.018962452188134193, 0.008465836755931377, 0.19267061352729797, -0.9290914535522461, -0.2742663323879242, 0.028237929567694664, 0.0007910151034593582], [-0.004241484683007002, -0.004984722007066011, 0.008733288384974003, 0.058391597121953964, 0.0010925547685474157, 0.021467851474881172, 0.2668897211551666, -0.5757488012313843, 0.2464420348405838, 0.5228944420814514, -0.2788856029510498], [0.0037543918006122112, -0.007196030579507351, -0.008346998132765293, -0.4121948480606079, 0.13433745503425598, 0.001634052605368197, 0.23675371706485748, 0.02667839452624321, -0.3917011320590973, -0.07931991666555405, -0.15369074046611786], [-0.0034071877598762512, 0.004628900904208422, 0.006642273627221584, -0.007552688475698233, -0.0107646519318223, 0.023464558646082878, 0.28541499376296997, -0.15881365537643433, -0.3973677456378937, 0.3157629072666168, -0.06956334412097931], [-0.007725252769887447, 0.3269612491130829, 0.0028372013475745916, -0.025397734716534615, -0.004309047479182482, -0.009666922502219677, -0.027136102318763733, 0.5387129187583923, -0.028848329558968544, -0.17307673394680023, -0.0005806689150631428], [-0.004485976882278919, -0.0039284261874854565, -0.0037661269307136536, 0.12113839387893677, -0.2619302272796631, -0.019129538908600807, -0.09294497966766357, -0.03169521316885948, 0.024137578904628754, 0.025335850194096565, 0.3670803904533386], [0.01664326712489128, 0.014158370904624462, 0.24790115654468536, -0.1654004156589508, -0.056341785937547684, 0.009958830662071705, 0.5694926381111145, 0.00591307133436203, -0.007929403334856033, -0.013220561668276787, 0.0009188081021420658], [-0.00829464104026556, -0.033029984682798386, -0.25802695751190186, 0.13018956780433655, 0.04876498505473137, 0.011453174985945225, 0.5076054930686951, 0.01757502183318138, -0.01394226960837841, 0.001511622336693108, 0.000732284621335566], [0.00018447414913680404, -0.005757221486419439, -0.03958038240671158, 0.20771227777004242, 0.05378083884716034, 0.020790446549654007, -0.7210588455200195, 0.05664718523621559, 0.03633645176887512, 0.0199079941958189, -0.023462699726223946], [-0.006372286472469568, -0.010998036712408066, -0.149990051984787, 0.10883371531963348, 0.022318461909890175, -0.008496444672346115, -0.37322017550468445, -0.03192785382270813, 0.02157045155763626, -0.0061081876046955585, -0.007442794274538755], [-0.0004158856754656881, 0.01617765985429287, 0.00866867508739233, -0.03528369590640068, -0.048637960106134415, -0.16360917687416077, -0.2134435772895813, 0.10081790387630463, -0.23831233382225037, -0.14393121004104614, -0.2748238444328308], [0.2311587929725647, 0.0008744259248487651, 0.0014864375116303563, 0.004424078855663538, 0.0012437195982784033, -0.42494115233421326, 0.011223824694752693, 0.0031084325164556503, 0.004056866280734539, 0.0006184785161167383, 0.003475471865385771], [-0.0004947355482727289, -0.24056285619735718, -0.0015773862833157182, 0.009135924279689789, 0.006810404360294342, -0.0016755444230511785, 0.028737664222717285, 0.47232890129089355, -0.013690527528524399, -0.02031824178993702, 0.0109528424218297], [0.0010537514463067055, -0.25494617223739624, 0.007130179088562727, -0.005886645521968603, -0.0008714577415958047, -0.0003478924627415836, -0.027658317238092422, 0.4102545380592346, -0.013333732262253761, -0.014615624211728573, 0.01138190645724535], [0.011959591880440712, 0.03404659777879715, 0.049064598977565765, -0.5146360993385315, -0.06812313944101334, 0.015180724672973156, 0.5404516458511353, 0.12651200592517853, 0.09003526717424393, 0.12593916058540344, -0.0350150391459465], [0.0051677776500582695, 0.0003205816028639674, 0.016596833243966103, 0.188141331076622, -0.25292426347732544, -0.011135917156934738, 0.17077769339084625, -0.008615095168352127, 0.39279410243034363, -0.02083391509950161, 0.3479975163936615], [0.0028192675672471523, 0.002929621608927846, 0.0829223245382309, -0.11580351740121841, -0.031246526166796684, -0.0034620477817952633, 0.5591055750846863, -0.013499148190021515, 0.009187760762870312, -0.006738864816725254, 0.005643903743475676], [-0.010328628122806549, -0.04226544126868248, -0.18295510113239288, 0.18739505112171173, 0.05070480704307556, 0.004433661233633757, 0.353720098733902, 0.03857942298054695, -0.010400112718343735, 0.015653900802135468, 0.0014124044682830572], [0.0002940723206847906, -0.008001836948096752, -0.016407690942287445, -0.1490313857793808, 0.16794997453689575, -0.0028013954870402813, 0.01701008528470993, 0.001386128831654787, -0.13352665305137634, -0.006309695076197386, 0.276311457157135], [0.0007458849577233195, 0.0029174049850553274, -0.040401458740234375, -0.08733733743429184, 0.1758430004119873, -0.008565548807382584, 0.3629714846611023, -0.004475679714232683, 0.21029385924339294, 0.005978626664727926, 0.2492261528968811], [-0.0018653811421245337, -0.01694370061159134, -0.03659689798951149, -0.25797685980796814, -0.01265232264995575, 0.004604177083820105, 0.5210163593292236, -0.34149837493896484, 0.15038999915122986, -0.2420089989900589, 0.03450731933116913], [-0.0016355908010154963, 0.011667980812489986, 0.005897975992411375, -0.14057819545269012, 0.17939972877502441, -0.010873351246118546, -0.0005670071695931256, -0.01662471331655979, 0.21623578667640686, 0.006945934146642685, 0.23385018110275269], [0.00505614560097456, -0.0038042792584747076, 0.022394878789782524, 0.08578303456306458, 0.005461128428578377, 0.019680984318256378, 0.4077404737472534, -0.46213117241859436, -0.2994105815887451, -0.29382938146591187, 0.028454739600419998], [-0.015481507405638695, -0.0038869744166731834, -0.01389371883124113, -0.20920680463314056, -0.026687098667025566, -0.016639892011880875, -0.31223273277282715, 0.1377505511045456, -0.39017796516418457, 0.14378957450389862, 0.08142755925655365], [-0.14265510439872742, -0.11835304647684097, -0.14838163554668427, 0.2407849282026291, 0.1541103720664978, -0.6755756139755249, 0.22704878449440002, -0.2606548070907593, 0.2389957755804062, 0.012559891678392887, -0.1491314321756363], [0.002693530637770891, -0.011982125230133533, 0.011189406737685204, 0.2993553578853607, -0.0457342267036438, -0.021812107414007187, 0.5622481107711792, -0.0003746342263184488, -0.6459611058235168, -0.04955723136663437, 0.03709528222680092], [-0.01011226698756218, 0.03248670697212219, -0.05463476479053497, -0.12090705335140228, 0.04050419107079506, -0.009709608741104603, 0.48208990693092346, -0.1497756987810135, 0.35387319326400757, -0.0824035257101059, 0.01592213660478592], [0.004182723816484213, 0.019361108541488647, 0.19264143705368042, -0.08099637925624847, 0.010075229220092297, -0.011504186317324638, -0.36544927954673767, -0.0109629537910223, 0.02168477512896061, -0.004629143979400396, 0.025163952261209488], [0.011947398073971272, 0.00013725602184422314, 0.007422867696732283, -0.0011909136082977057, -0.001409162417985499, -0.8668572306632996, 0.33601677417755127, 0.005902096163481474, 0.3736622929573059, -0.002365446649491787, -0.02154124714434147], [0.23812860250473022, 0.0017071794718503952, 0.017557283863425255, 0.004370497073978186, 0.00018352727056480944, 0.32522717118263245, -0.002709399675950408, -0.0070266337133944035, 0.016104670241475105, 0.09662625938653946, -0.001126679009757936], [-0.004350708797574043, 0.0024594650603830814, 0.01022527739405632, -0.0070198904722929, 0.31136247515678406, -0.0005386702832765877, -0.17532244324684143, 0.011799258179962635, -0.2332715392112732, 0.01832706294953823, -0.33398279547691345], [-0.0025153348688036203, -0.008397823199629784, 0.029174525290727615, 0.044700317084789276, 0.07423799484968185, 0.6949456334114075, -0.37622299790382385, -0.01947704330086708, -0.0893905982375145, -0.03031432442367077, 0.041742827743291855], [0.13334651291370392, 0.10717631131410599, 0.1312837153673172, -0.2147371917963028, -0.13702084124088287, 0.6093220710754395, -0.20275814831256866, 0.23564831912517548, -0.2160462886095047, -0.009958532638847828, 0.1335896998643875], [0.0013011934934183955, -0.013233670964837074, -0.030783701688051224, 0.13460306823253632, -0.053598999977111816, -0.06892934441566467, 0.2886877655982971, -0.05675000697374344, -0.49035879969596863, -0.08733261376619339, -0.04876549541950226], [0.002892964519560337, 0.0006850413628853858, 0.0015126377111300826, -0.0012963792541995645, -0.0012593467254191637, 0.00338220177218318, 0.24247263371944427, -0.22434242069721222, -0.32414528727531433, -0.5997752547264099, 0.0017307528760284185], [0.002772744745016098, 0.0033778708893805742, -0.001920201233588159, 0.03332597017288208, -0.15906675159931183, -0.06350761651992798, -0.21868088841438293, 0.00035072691389359534, -0.1754450500011444, -0.0013767994241788983, -0.12469632178544998], [0.0007854627328924835, -0.005762356333434582, 0.002720906399190426, 0.023652413859963417, 0.0013399200979620218, 0.007558520883321762, 0.07535780221223831, -0.046924807131290436, 0.09696245193481445, 0.8893705010414124, -0.0936620905995369], [-0.003529990091919899, 0.00034230490564368665, -0.0031514931470155716, 0.00377334444783628, 0.001674373634159565, -0.00310528464615345, 0.21043263375759125, -0.42048054933547974, -0.5373977422714233, -0.467117041349411, -0.01808406598865986], [0.015059854835271835, -0.052021175622940063, -0.003197277430444956, 0.36930525302886963, -0.013445422984659672, -0.007982296869158745, -0.008941520936787128, 0.36338353157043457, -0.337711900472641, 0.3791781961917877, 0.01269087940454483], [0.0017398607451468706, 0.28311851620674133, -0.005084571428596973, -0.05208002030849457, -0.00024175175349228084, -0.00179409293923527, -0.05532897636294365, 0.5143556594848633, 0.044910166412591934, 0.11651794612407684, -0.007169289980083704], [-0.22296008467674255, 0.0011593722738325596, -0.002285839058458805, 0.0003037871210835874, 0.0034593644086271524, 0.35118356347084045, -0.020566143095493317, 0.0002706191153265536, 0.005685638636350632, 0.001167071284726262, 0.0011317741591483355], [-0.003365871263667941, 0.009118487127125263, 0.00463571771979332, 0.14245478808879852, -0.10097495466470718, 0.042827360332012177, -0.05211608111858368, 0.07045572996139526, -0.37202197313308716, -0.050526220351457596, 0.3285631537437439], [0.00320529006421566, 0.012058427557349205, 0.006752896122634411, 0.027782825753092766, 0.003031679429113865, 0.0014865484554320574, 0.35145896673202515, -0.4514857828617096, -0.3517150282859802, -0.41293957829475403, -0.003376718843355775], [-0.005087545141577721, -0.02335452288389206, -0.05007781833410263, 0.3398786783218384, 0.030607832595705986, 0.026263685896992683, 0.34639543294906616, 0.04117101803421974, -0.15507835149765015, -0.028694674372673035, -0.21634170413017273], [-0.0002041424304479733, -0.006969969719648361, 0.0034408599603921175, -0.007124894764274359, 0.0009442281443625689, 0.0029828406404703856, 0.08241064846515656, -0.8750003576278687, 0.10414087772369385, 0.09645082801580429, -0.11189273744821548], [-0.00469687394797802, 0.0016797472489997745, -0.010145305655896664, -0.18262912333011627, 0.1879197508096695, -0.005965085234493017, -0.15322522819042206, -0.031654831022024155, -0.3471168875694275, -0.0032708009239286184, -0.33876338601112366], [-0.003982488997280598, 0.0028071426786482334, 0.047745175659656525, -0.29565906524658203, 0.29461315274238586, 0.0006820281269028783, 0.08305289596319199, -0.01599433645606041, 0.39240866899490356, 0.020787185057997704, 0.44101667404174805], [-0.29225173592567444, 0.002483759541064501, -0.0009701683884486556, 0.0033558800350874662, -0.0006830513011664152, 0.37398555874824524, -0.014408840797841549, -0.0015312640462070704, -0.008491546846926212, 0.0015291706658899784, -0.0020814775489270687], [0.0127551956102252, -0.012716594152152538, -0.0011355476453900337, 0.09739629924297333, -0.1911814957857132, 0.025060826912522316, -0.165625661611557, -0.01526654977351427, 0.2709619700908661, -0.03515761345624924, -0.24155491590499878], [0.0027762537356466055, -0.007302801124751568, 0.006920874584466219, 0.001440016203559935, -0.01944032870233059, -0.008955070748925209, 0.04098387062549591, 0.014779220335185528, 0.5692242383956909, 0.5925741195678711, 0.030813314020633698], [0.0027868214529007673, 0.0012988557573407888, -0.0020805802196264267, 0.027796462178230286, -0.011078812181949615, -0.8510188460350037, 0.1793958991765976, 0.017621854320168495, 0.15121634304523468, 0.004580808337777853, 0.004027287941426039]], "fc1.bias": [0.6065394878387451, -0.4922736883163452, 0.5494609475135803, 0.8496776223182678, 0.22377295792102814, 0.25626271963119507, -0.8950592279434204, -0.008792795240879059, 0.724647581577301, 0.44105657935142517, -0.5809604525566101, 0.6642075181007385, 0.7816762328147888, -0.9543597102165222, -1.4827766418457031, -0.1337047517299652, 0.35132625699043274, 0.2635771632194519, 0.29809805750846863, 0.23292557895183563, 0.15888962149620056, -0.5152159333229065, 0.21540655195713043, 0.6818155646324158, 0.5140649676322937, -0.41803792119026184, 0.2222641259431839, -0.04829816147685051, -0.11148785799741745, 0.8330116271972656, 0.6558653116226196, 0.4600200951099396, -0.16059865057468414, 0.49495065212249756, 0.1339333951473236, -0.24344058334827423, 0.18136364221572876, 0.005328369792550802, -0.3179395794868469, 0.2261393815279007, 0.3181951344013214, -1.1708357334136963, 0.16501273214817047, 0.761957585811615, 1.0369923114776611, -0.0036942821461707354, 0.3627453148365021, -0.4635910987854004, 0.8484268188476562, -1.4283621311187744, -0.23433080315589905, -0.15882466733455658, 0.1611611247062683, 0.34828174114227295, 0.4140143096446991, -0.41513770818710327, 0.06898616254329681, -1.3700569868087769, 0.6045758128166199, -0.43553540110588074, -0.05536739155650139, 0.676150918006897, 0.024730494245886803, -1.1318358182907104], "fc2.weight": [[0.0036294700112193823, -0.028976930305361748, -0.03587421774864197, 0.005981841590255499, -0.01656799390912056, 0.05268038064241409, 0.28270360827445984, -0.09620507806539536, 0.2871881425380707, -0.007089383900165558, -0.03811366856098175, 0.007352524437010288, 0.10000936686992645, -0.20043876767158508, 0.16662544012069702, 0.057457998394966125, 0.08641668409109116, -0.116156205534935, -0.016346463933587074, -0.1801895648241043, 0.20130184292793274, 0.19209299981594086, -0.03221125900745392, 0.05410679802298546, -0.01600794866681099, 0.23411156237125397, 0.28161752223968506, 0.10480214655399323, 0.1845928132534027, -0.02816537581384182, 0.25017327070236206, 0.0975002646446228, 0.16028988361358643, 0.02582189440727234, -0.16267265379428864, -0.08006922900676727, -0.16956205666065216, 0.013573908247053623, 0.20218758285045624, 0.09045209735631943, 0.06916438788175583, -0.3737802803516388, -0.10988356918096542, 0.09188402444124222, 0.1275097131729126, -0.1718917340040207, 0.09513404965400696, 0.2632194459438324, 0.27185630798339844, 0.2816244065761566, -0.00042381667299196124, -0.1934271901845932, -0.0022800590377300978, 0.13070444762706757, 0.22211940586566925, 0.2623574733734131, -0.08455559611320496, 0.10910815000534058, 0.09889613837003708, 0.009404540993273258, 0.1769973784685135, -0.08979547023773193, 0.1414165496826172, -0.43274232745170593], [0.016548767685890198, 0.07980457693338394, 0.15923185646533966, 0.2620208263397217, 0.005430742632597685, -0.1841847449541092, 0.10614296793937683, 0.1367933750152588, 0.30632635951042175, 0.1351209431886673, -0.005331046413630247, 0.23470698297023773, -0.006491045001894236, -1.2705655097961426, -0.06601252406835556, 0.12568044662475586, 0.34825336933135986, 0.22046218812465668, 0.017361300066113472, 0.020603088662028313, 0.1635012924671173, 0.02259550802409649, -0.0671779066324234, 0.2763046324253082, 0.044894199818372726, -0.08019070327281952, 0.015406004153192043, 0.1882300078868866, 0.13688787817955017, 0.43044987320899963, 0.11572711169719696, 0.06069108098745346, 0.13838693499565125, -0.25916925072669983, 0.10563606023788452, -0.21970340609550476, -0.07198439538478851, -0.19373257458209991, 0.30201008915901184, -0.10942397266626358, -0.1603851467370987, 0.6129513382911682, 0.07752570509910583, 0.02957177348434925, -0.03360164165496826, 0.11282980442047119, 0.24223540723323822, 0.06955721974372864, -0.03131822124123573, -0.3754172921180725, -0.0956667810678482, 0.006675375625491142, 0.3270774483680725, -0.01040447037667036, 0.13332556188106537, -0.2586367130279541, 0.1431494504213333, -2.6169304847717285, 0.13387851417064667, 0.015780851244926453, 0.11524424701929092, -0.12338581681251526, 0.35863611102104187, 0.7689340114593506], [0.007184494286775589, 0.07751300930976868, -0.10105263441801071, 0.0825989693403244, -0.02344021387398243, -0.03873181343078613, -0.009147437289357185, 0.029254388064146042, 0.15129651129245758, 0.08573517948389053, -0.026966283097863197, 0.025560827925801277, 0.08694621920585632, 0.3078477382659912, -1.4748566150665283, -0.3015003800392151, 0.12193884700536728, 0.09262339025735855, -0.13278524577617645, 0.19079972803592682, -0.06273681670427322, 0.24751852452754974, 0.06849320977926254, 0.21392589807510376, 0.009260855615139008, 0.004544442519545555, -0.031690433621406555, -0.4898546040058136, 0.0806039497256279, -0.09435030072927475, 0.10832145810127258, 0.12157773226499557, 0.04567800089716911, -0.1924508661031723, 0.0631178766489029, 0.15999901294708252, -0.35129737854003906, -0.07566539943218231, 0.1292661428451538, 0.1994849592447281, -0.16401539742946625, 0.17012496292591095, 0.04736757650971413, -0.10652182251214981, 0.003952978178858757, 0.052623260766267776, 0.03402145951986313, 0.2629542052745819, 0.04318762198090553, -3.527726411819458, -0.0051514944061636925, -0.1956375390291214, -0.08634119480848312, 0.04366850107908249, 0.11025325953960419, 0.010264144279062748, 0.030876997858285904, -0.9816094040870667, 0.1933395117521286, 0.05254998803138733, -0.031141769140958786, -0.08458488434553146, -0.04508274793624878, 0.16775645315647125], [0.05057087540626526, 0.12446621060371399, 0.09075649827718735, 0.1745583415031433, -0.046719878911972046, 0.18154117465019226, 0.05655205249786377, -0.021121567115187645, 0.1442590206861496, -0.05410135164856911, 0.16466271877288818, 0.004850887227803469, 0.0377982072532177, -0.20914991199970245, 0.23678845167160034, 0.2598330080509186, 0.14645904302597046, -0.113466776907444, 0.01322189625352621, -0.1768079698085785, 0.2853671610355377, 0.025043392553925514, -0.21633397042751312, 0.10447864234447479, -0.08824756741523743, 0.22767379879951477, 0.14746855199337006, 0.08744718134403229, 0.07009358704090118, -0.026612386107444763, 0.1780690997838974, -0.07950591295957565, 0.08924151957035065, 0.03679642453789711, 0.08596082776784897, 0.08987156301736832, 0.029249563813209534, -0.023088110610842705, 0.15079183876514435, 0.10649730265140533, 0.10661599785089493, -0.3385145664215088, 0.034274064004421234, -0.06234993785619736, 0.05604386329650879, -0.10437341779470444, 0.13274630904197693, 0.12412358075380325, 0.17681752145290375, 0.3503524959087372, 0.07486379891633987, -0.12910868227481842, -0.04107527434825897, 0.19691157341003418, 0.07330133765935898, 0.060069598257541656, -0.054554082453250885, 0.0013012317940592766, 0.009967556223273277, 0.18513941764831543, 0.06341681629419327, 0.0025246734730899334, 0.21650826930999756, -0.20918726921081543], [0.044043026864528656, 0.014730929397046566, 0.15047653019428253, -0.17922791838645935, 0.4515419602394104, -0.07176627218723297, 0.026508690789341927, 0.5598675608634949, -0.047079917043447495, -0.059891846030950546, -0.021924184635281563, 0.004073604475706816, -0.03635441139340401, 0.008623669855296612, 0.09792644530534744, 0.006257632747292519, -0.00672517903149128, -0.014300056733191013, -0.008694768883287907, -0.027480067685246468, 0.00914344284683466, -0.028113048523664474, 0.09816335886716843, 0.06927672773599625, 0.2675229609012604, 0.03350434824824333, 0.007546329405158758, 0.007791284937411547, 0.00811108760535717, 0.017840471118688583, 0.00793266762048006, 0.017044197767972946, 0.0072452048771083355, -0.002035548910498619, -0.024284476414322853, -0.008394831791520119, 0.026014599949121475, -0.13382703065872192, 0.014733953401446342, -0.01044275239109993, -0.05387308821082115, 0.2418997436761856, 0.3031909763813019, 0.048178017139434814, -0.02804134041070938, 0.23385089635849, -0.006514335982501507, -0.04501844942569733, -0.39911580085754395, 0.37936636805534363, 0.03723045065999031, 0.013184376992285252, -0.02406410314142704, 0.07265648245811462, 0.010417506098747253, 0.09658992290496826, -0.0002710670232772827, 0.13875913619995117, -0.0789431780576706, 0.0076138656586408615, 0.09231571108102798, 0.18436771631240845, -0.011575175449252129, -0.05615142732858658], [-0.037510570138692856, 0.014019010588526726, 0.016131125390529633, -0.14716538786888123, 0.09296869486570358, -0.19403725862503052, -0.08886715024709702, -0.037883903831243515, -0.06206949055194855, 0.0033059660345315933, 0.09294609725475311, 0.1311422437429428, 0.05729658901691437, -0.36350947618484497, 0.018261702731251717, -0.2797849774360657, 0.01647510752081871, 0.007461566478013992, 0.2115158587694168, 0.00715342303737998, -0.18037016689777374, 0.37715238332748413, -0.006005838513374329, -0.0027507187332957983, 0.1453271061182022, -0.030777379870414734, -0.036021485924720764, 0.13946816325187683, -0.11260562390089035, -0.004489024635404348, 0.21095992624759674, 0.014639162458479404, -0.327442467212677, 0.13835817575454712, 0.009759907610714436, -0.03967013210058212, 0.06362772732973099, 0.021886736154556274, 0.07264668494462967, -0.06926026195287704, 0.1898031085729599, 1.4536505937576294, -0.1168360784649849, 0.07109981030225754, 0.10534708201885223, -0.04747502878308296, 0.11906062066555023, -0.13497798144817352, 0.20663057267665863, -1.1581519842147827, -0.02516108565032482, -0.1419541984796524, 0.03737857937812805, 0.17431673407554626, 0.0960785523056984, 0.22286096215248108, 0.15967802703380585, -1.972568392753601, 0.08302435278892517, -0.35621675848960876, 0.03634956106543541, 0.12260647118091583, -0.16162118315696716, 0.4318741261959076], [-0.5243917107582092, -0.5757161378860474, -0.24057050049304962, 0.07054092735052109, 0.05776115879416466, 0.05356413871049881, 0.4439905285835266, -0.0025903498753905296, -1.1585134267807007, 0.02732422575354576, 0.021477706730365753, -0.09627358615398407, 0.12663672864437103, -0.09964140504598618, -0.4220142662525177, -0.03733552619814873, 0.05680093914270401, 0.03862819820642471, -0.03423908352851868, -0.018339162692427635, -0.013121355324983597, 0.003557320451363921, 0.16940560936927795, 0.31570571660995483, -0.03711673244833946, 0.02526971884071827, 0.011685396544635296, -0.14230042695999146, 0.03303975984454155, -0.15194717049598694, -0.04011811316013336, 0.04005494341254234, 0.0008872971520759165, 0.09305734187364578, 0.0015433707740157843, 0.004134200047701597, -0.11108820885419846, -0.008601543493568897, 0.11297640949487686, 0.048815179616212845, 0.04015839472413063, 0.12607289850711823, -0.018400242552161217, 0.1568785160779953, 0.010759036056697369, 0.002006968716159463, 0.10115302354097366, 0.15957856178283691, 0.06711568683385849, -1.1883059740066528, -0.24091798067092896, -0.08534146100282669, -0.044097237288951874, -0.008052293211221695, 0.3230798840522766, -0.14030128717422485, -0.005408786237239838, -1.2598975896835327, -0.007082593627274036, 0.01327792089432478, 0.021940886974334717, -0.12248963117599487, 1.6035436391830444, 0.016037067398428917], [-0.12263936549425125, 0.030560873448848724, 0.13926327228546143, -0.044511400163173676, -0.03214060887694359, 0.04182429239153862, -0.1141071543097496, 0.013967190869152546, 0.039076849818229675, 0.2893598973751068, -0.11365628242492676, -0.146720752120018, 0.07774803042411804, -0.5445554852485657, -0.7396897077560425, 0.02522263117134571, -0.004241902381181717, -0.029665039852261543, 0.09694370627403259, -0.11946498602628708, -0.09239511936903, -0.4067690074443817, -0.14935457706451416, 0.041833654046058655, 0.020231910049915314, 0.01206299290060997, -0.07892204076051712, 0.15478073060512543, 0.16882598400115967, 0.3750261664390564, 0.010093990713357925, -0.10492805391550064, 0.0865221619606018, -0.11070213466882706, -0.16436317563056946, -0.041462384164333344, 0.013128216378390789, -0.06995018571615219, 0.11351898312568665, -0.07211199402809143, -0.020671388134360313, 0.2349206656217575, -0.015124274417757988, 0.03925564885139465, -0.01387596782296896, 0.06212281808257103, -0.006619428284466267, 0.18261666595935822, -0.16744807362556458, 0.6649529933929443, 0.027528194710612297, -0.005205055233091116, -0.1005440279841423, -0.030589738860726357, 0.08105530589818954, 0.2138962298631668, -0.05700037255883217, -0.013376542367041111, 0.15767665207386017, -0.19906927645206451, 0.016111964359879494, -0.14302800595760345, -0.014035025611519814, -0.971960186958313], [-0.19177918136119843, 0.030674723908305168, 0.0550997368991375, -0.09013193100690842, 0.16757041215896606, -0.024482958018779755, 0.09176600724458694, -0.23036377131938934, -0.04421668127179146, -0.09790077805519104, 0.2470143586397171, 0.02514783665537834, 0.3849707245826721, -0.038295451551675797, 0.5902514457702637, 0.20755048096179962, 0.2382373958826065, -0.0265037901699543, 0.08255573362112045, -0.012941106222569942, -0.049859464168548584, 0.30522799491882324, 0.15589705109596252, -0.18763770163059235, -0.5103378295898438, 0.03997034952044487, -0.026242438703775406, -0.1462666243314743, -0.1567874699831009, 0.19824762642383575, 0.13628344237804413, 0.15285277366638184, -0.02440144307911396, -0.07022035121917725, -0.15745244920253754, 0.1312633752822876, -0.09546040743589401, -0.389646977186203, 0.17141979932785034, -0.09336726367473602, 0.06365739554166794, -0.8353824615478516, 0.15002138912677765, 0.2665201723575592, 0.5478566884994507, 0.2602078318595886, 0.30082789063453674, -0.036878716200590134, 0.036347754299640656, -0.29086893796920776, -0.08692850172519684, -0.03848868981003761, 0.007250026799738407, -0.05438760295510292, 0.12383904308080673, 0.04386212304234505, 0.023680035024881363, 0.26320502161979675, -0.02079310268163681, 0.03385487198829651, -0.05110958591103554, 0.2348618358373642, -0.05678539723157883, -0.6828513145446777], [-0.07682576775550842, -0.005794266238808632, 0.042099736630916595, 0.19246751070022583, -0.07203339040279388, 0.07095015794038773, 0.07247565686702728, -0.08427854627370834, 0.11522454768419266, 0.1468280553817749, 0.019869353622198105, 0.011994770728051662, 0.10711117833852768, -0.16812664270401, 0.25541189312934875, 0.0813775509595871, 0.27712199091911316, -0.14411349594593048, 0.07489974796772003, -0.3198021352291107, 0.29954496026039124, 0.029626978561282158, -0.22894063591957092, -0.10224068909883499, -0.13215404748916626, 0.29036179184913635, 0.3025832176208496, 0.03119732439517975, 0.029696589335799217, 0.00953628495335579, 0.16760647296905518, 0.11358752846717834, 0.2030617594718933, 0.06178595870733261, -0.06855446100234985, -0.03042834997177124, -0.05652543157339096, 0.11370591819286346, 0.1331486701965332, 0.10781504213809967, 0.07703886181116104, -0.26103371381759644, 0.054078854620456696, -0.059901706874370575, 0.04910491034388542, -0.1763267070055008, 0.16944217681884766, 0.0963359847664833, 0.08679023385047913, 0.35415908694267273, 0.09022324532270432, -0.11758474260568619, -0.07143089175224304, 0.08850374072790146, 0.015597929246723652, 0.13858364522457123, -0.046640630811452866, 0.051514144986867905, 0.11133626848459244, 0.1283446103334427, 0.2231759876012802, -0.050763100385665894, 0.06336458772420883, -0.28686925768852234], [0.049294233322143555, 0.029370220378041267, -0.027850421145558357, 0.04788155108690262, -0.13004940748214722, 0.19621068239212036, 0.1529959887266159, -0.20617903769016266, 0.14601148664951324, 0.11238580197095871, -0.07994373142719269, -0.06981212645769119, 0.15238900482654572, -0.2733732759952545, 0.11013275384902954, 0.17094042897224426, 0.307900071144104, 0.03016473911702633, 0.10462629050016403, -0.18240348994731903, 0.17331425845623016, 0.10986416786909103, -0.07990279048681259, -0.11777002364397049, -0.039746228605508804, 0.14547905325889587, 0.15897879004478455, 0.053498707711696625, 0.09946592897176743, -0.10703535377979279, 0.13490474224090576, -0.011964195407927036, 0.0035540203098207712, 0.07542750239372253, -0.1695067435503006, 0.02885356917977333, -0.13916175067424774, -0.008824811317026615, 0.11383666098117828, 0.09758171439170837, 0.11341217905282974, -0.20630376040935516, -0.05665861442685127, 0.04752277955412865, 0.1563122719526291, -0.24676869809627533, 0.0022063744254410267, 0.10574090480804443, 0.2810671925544739, 0.376398503780365, 0.19709469377994537, -0.050518911331892014, -0.0072763096541166306, 0.17255482077598572, 0.2310127317905426, 0.05293363705277443, -0.09945537894964218, -0.07251796126365662, 0.12990884482860565, 0.17571786046028137, 0.17369478940963745, -0.12216775864362717, 0.16973602771759033, -0.20640963315963745], [-0.0475643165409565, -0.2523784637451172, -0.11898864805698395, 0.047705721110105515, -0.0006825997843407094, 0.04491961747407913, -0.09287680685520172, -0.015820221975445747, 0.0015210522105917335, -0.02815297245979309, -0.058913685381412506, 0.263397216796875, -0.17534323036670685, -0.3862776756286621, 0.4114421606063843, 0.2538948655128479, -0.1586730033159256, -0.11269374191761017, 0.3149157464504242, 0.023697638884186745, -0.0022017862647771835, -0.2129831165075302, -0.11215244233608246, -0.047188255935907364, 0.0014640064910054207, -0.05183202028274536, -0.07991287857294083, -0.01988702267408371, 0.1018504798412323, -0.12241217494010925, -0.04465452581644058, -0.09578203409910202, 0.10499779880046844, 0.24733130633831024, 0.05357756465673447, 0.0076797050423920155, 0.16997599601745605, -0.044795021414756775, -0.06675028055906296, -0.02800358459353447, -0.07449553161859512, -0.08442690223455429, -0.040767595171928406, 0.22780635952949524, -0.15526136755943298, 0.05853697285056114, 0.016093146055936813, -0.2462865114212036, -0.6210060119628906, 0.7125483751296997, 0.2114560306072235, 0.06524595618247986, 0.06025375798344612, 0.046044476330280304, 0.39779478311538696, -0.24503988027572632, 0.010385206900537014, 0.26376989483833313, 0.23787888884544373, -0.013731316663324833, -0.0007819076417945325, 0.630673348903656, -0.045516110956668854, -0.3672432601451874], [0.10418956726789474, -0.048476383090019226, 0.014422334730625153, -0.017472470179200172, 0.004096369259059429, 0.1825067400932312, 0.27521875500679016, -0.20510907471179962, 0.28153562545776367, 0.16960451006889343, -0.021105268970131874, 0.10037406533956528, 0.12361636757850647, -0.12553714215755463, 0.30610692501068115, 0.1576336771249771, 0.13947118818759918, -0.12123429030179977, 0.038805607706308365, -0.32924267649650574, 0.10485336184501648, 0.14046409726142883, -0.19309917092323303, -0.07443384826183319, -0.09188167005777359, 0.13576431572437286, 0.28048670291900635, 0.026606544852256775, 0.18796393275260925, -0.07430046796798706, 0.22841805219650269, 0.018995966762304306, 0.12348649650812149, 0.07199489325284958, 0.04333725944161415, -0.011503404006361961, -0.13402718305587769, 0.021795067936182022, 0.15906353294849396, 0.0990426316857338, 0.20626036822795868, -0.12476028501987457, -0.06174727529287338, 0.11203720420598984, 0.10111714899539948, -0.18481087684631348, 0.05110103636980057, 0.0994662195444107, 0.1562255173921585, 0.23093655705451965, 0.11618395149707794, -0.1648246794939041, -0.0537308007478714, -0.0023049754090607166, 0.17097005248069763, 0.21654768288135529, -0.07552684843540192, 0.05271662399172783, 0.15068373084068298, -0.013760753907263279, 0.1470257192850113, -0.1540631651878357, 0.050121791660785675, -0.21011638641357422], [0.10604427009820938, 0.024471059441566467, 0.056941431015729904, 0.11887799203395844, -0.16556614637374878, -0.03451338782906532, 0.1934073567390442, -0.1357143074274063, 0.27096736431121826, -0.005209337919950485, -0.0005773775046691298, -0.09408414363861084, 0.05345911160111427, -0.14056938886642456, 0.2867896258831024, 0.006204136647284031, 0.11932921409606934, -0.10956267267465591, -0.013123893178999424, -0.19581732153892517, 0.3014340400695801, 0.01713091880083084, -0.17009307444095612, 0.05889863893389702, -0.049962807446718216, 0.1896226555109024, 0.143374964594841, -0.010926680639386177, 0.02566177397966385, 0.03186100348830223, 0.26315101981163025, -0.0002867981675080955, 0.15696637332439423, -0.0499027743935585, 0.09645388275384903, 0.008540087379515171, -0.1351862996816635, 0.09892582148313522, 0.17981953918933868, 0.013827565126121044, 0.18413077294826508, -0.4075779914855957, -0.00910942442715168, 0.1239544227719307, 0.18205426633358002, -0.23152153193950653, 0.18204450607299805, 0.08707144111394882, 0.17301954329013824, 0.19934481382369995, 0.05619155243039131, -0.009736581705510616, 0.095465749502182, 0.18760403990745544, 0.17982730269432068, 0.06925158947706223, 0.030460910871624947, 0.0494307205080986, 0.1272212713956833, 0.09771233797073364, 0.012109534814953804, -0.057853490114212036, 0.1517639011144638, -0.3320845663547516], [-0.14225023984909058, -0.24656446278095245, -0.09989039599895477, 0.3359789550304413, 0.06136206537485123, -0.38172659277915955, -0.41553038358688354, -0.04479680210351944, 0.10242553800344467, 0.05466184392571449, 0.011932342313230038, 0.2555992901325226, 0.11536107957363129, -0.6844692230224609, 0.24027401208877563, -0.19416140019893646, 0.21444614231586456, 0.1479170173406601, -0.01583924889564514, 0.09184390306472778, 0.06778057664632797, -0.18001960217952728, 0.015179840847849846, -0.10327176749706268, -0.0815361887216568, 0.08995220810174942, -0.025432124733924866, 0.07570146024227142, 0.07567767798900604, 0.09925941377878189, 0.10912597179412842, 0.021511659026145935, 0.054954711347818375, -0.18462155759334564, -0.1624181568622589, -0.2443590760231018, -0.29471373558044434, -0.05481629818677902, 0.28058958053588867, -0.027590157464146614, -0.022657297551631927, -0.18543396890163422, -0.0006316971848718822, 0.23893608152866364, -0.07877881824970245, -0.001129850628785789, 0.45010414719581604, -0.5758115649223328, 0.2899567782878876, 0.5607295036315918, -0.12563063204288483, 0.06069162115454674, 0.002282168250530958, -0.0188149381428957, 0.21236950159072876, -0.07597832381725311, -0.00015848924522288144, 1.5018380880355835, 0.03697047755122185, 0.032403137534856796, 0.07157191634178162, -0.20504282414913177, -0.24818256497383118, 0.37578290700912476], [-0.11300147324800491, 0.24229313433170319, -0.02524159662425518, -0.3802144229412079, 0.09071264415979385, 0.0023353646975010633, 0.19230327010154724, -0.02049584500491619, -0.332738995552063, -0.19020366668701172, 0.05120515450835228, 0.23526525497436523, 0.0666341781616211, -0.0016077319160103798, 0.0028912413399666548, -0.04495677724480629, 0.026737283915281296, 0.006034221034497023, -0.06348592042922974, 0.04484475404024124, 0.14256176352500916, -5.2464799880981445, -0.1323007047176361, 0.13830381631851196, 0.008483123034238815, -0.03666416555643082, -0.022044770419597626, 0.07829860597848892, 0.03874490037560463, 0.03989103063941002, 0.1599886119365692, 0.10516324639320374, 0.11416727304458618, -0.2104981541633606, 0.15782086551189423, 0.23107293248176575, -0.04704117029905319, 0.15306228399276733, -0.03260144963860512, -0.013089255429804325, 0.07151928544044495, -0.7680612802505493, -0.04950921609997749, -0.20629605650901794, 0.0875559151172638, -0.15221945941448212, 0.051008012145757675, 0.08062927424907684, -0.23460745811462402, -0.14997486770153046, -0.4655146300792694, 0.050640180706977844, 0.00916808657348156, -0.0012172802817076445, -0.09257736057043076, -0.07064450532197952, 0.30420544743537903, -0.3969256281852722, -0.04824506863951683, 0.5726337432861328, 0.02699480764567852, 0.08307784795761108, -0.16771014034748077, 0.12737303972244263], [0.07390395551919937, -0.2520791292190552, 0.2752994894981384, 0.029531557112932205, -0.021070782095193863, -0.07975344359874725, -0.17149968445301056, 0.055751681327819824, 0.0455525778234005, 0.10817156732082367, -0.04931075870990753, -0.2209216058254242, 0.12223658710718155, 0.5911368727684021, 0.5967763662338257, 0.14879931509494781, 0.19588035345077515, -0.0029532790649682283, 0.0323464460670948, -0.010140812024474144, -0.011319785378873348, -0.0970773696899414, -0.205728679895401, -0.1279660314321518, -0.012876853346824646, 0.055056050419807434, 0.014128818176686764, -0.07714718580245972, 0.13973286747932434, 0.10629136860370636, -0.12729141116142273, -0.09261935204267502, 0.007346910424530506, -0.02186318300664425, -0.040100157260894775, -0.1272662878036499, -0.016888095065951347, -0.1145908385515213, 0.05853977054357529, 0.016305113211274147, -0.13609252870082855, 0.6034342050552368, 0.004988973028957844, 0.24341771006584167, -0.21230275928974152, 0.12329517304897308, -0.031878676265478134, 0.2963959574699402, -0.4102093279361725, -1.5888652801513672, -0.2417551726102829, -0.04478643462061882, 0.03483863174915314, 0.01252256240695715, 0.34236639738082886, 0.2605718672275543, 0.04722961410880089, 1.1986819505691528, 0.16548527777194977, -0.014143506996333599, 0.02374352514743805, 0.24793638288974762, 0.13068850338459015, -0.1382538229227066], [-0.0018835322698578238, 0.1698005497455597, 0.01833832636475563, -0.24591127038002014, -0.0016498694894835353, 0.015364181250333786, 0.07503063976764679, 0.011909875087440014, -0.09337026625871658, 0.061533525586128235, -0.03561398759484291, -0.09737272560596466, -0.004541986621916294, -4.26318359375, -0.3457711338996887, -0.004489777144044638, -0.01678856834769249, 0.5803052186965942, 0.05733924359083176, -0.08761779218912125, 0.014951743185520172, -0.03560550883412361, 0.006193400360643864, -0.056363143026828766, -0.017919622361660004, 0.11159948259592056, 0.017283914610743523, 0.062498025596141815, -0.023817898705601692, 0.015109783969819546, 0.003713620128110051, 0.025446457788348198, -0.022544100880622864, -0.18995174765586853, -0.005040088202804327, -0.052295465022325516, 0.014270921237766743, -0.04786530137062073, -0.01118434313684702, 0.029404157772660255, 0.02152090333402157, 0.10702025145292282, -0.004813093692064285, -0.028394000604748726, -0.08887150883674622, 0.06547252833843231, 0.02756531722843647, 0.15149463713169098, -0.1367969959974289, 2.449676990509033, -0.0808987244963646, 0.036695484071969986, 0.1546269953250885, 0.014113110490143299, -0.03923262655735016, -0.06693604588508606, -0.043470870703458786, -2.624115228652954, -0.00027285824762657285, -0.023266440257430077, 0.004944939631968737, 0.03172621876001358, -0.014455377124249935, -0.08989495784044266], [-0.07494939863681793, -0.013056064955890179, -0.12115563452243805, 0.09444916248321533, -0.12600958347320557, -0.03701192885637283, 0.192010298371315, -0.2513943910598755, 0.3530557453632355, -0.057240791618824005, -0.005888019688427448, 0.1532859206199646, 0.14908364415168762, -0.16634805500507355, 0.28365612030029297, 0.07262361794710159, 0.05915829911828041, 0.0346032977104187, -0.046870529651641846, -0.22661015391349792, 0.23127637803554535, 0.09802218526601791, -0.06017610803246498, 0.06420713663101196, 0.028197120875120163, 0.15410980582237244, 0.04916658625006676, -0.022013360634446144, 0.10379109531641006, 0.026714622974395752, 0.29481130838394165, 0.11893942207098007, 0.06915538012981415, 0.011996990069746971, 0.07009585201740265, 0.12175116688013077, -0.058554403483867645, 0.06817000359296799, 0.14156487584114075, 0.0893123671412468, 0.11515484005212784, -0.40896815061569214, 0.01057756133377552, -0.057651322335004807, 0.14417664706707, -0.19919420778751373, 0.14370937645435333, 0.08330779522657394, 0.31305980682373047, 0.2792109251022339, 0.04136358201503754, -0.009281596168875694, 0.0018342247931286693, 0.06567107141017914, 0.0838211327791214, 0.07565515488386154, -0.15989644825458527, 0.11523359268903732, 0.140886589884758, 0.018288128077983856, 0.1462451070547104, -0.08416695147752762, 0.007557915057986975, -0.3420502543449402], [-0.12265318632125854, -0.14264926314353943, 0.08543818444013596, -0.01967013068497181, 0.18012157082557678, -0.11108240485191345, 0.014014530926942825, -0.193308487534523, -0.04848584160208702, -0.050981730222702026, -0.10319604724645615, 0.050426170229911804, 0.21110297739505768, 0.05724102631211281, -0.12667545676231384, -0.12914125621318817, 0.009271570481359959, -0.0068550752475857735, 0.1817401498556137, -0.023041026666760445, 0.03357989713549614, 0.06591128557920456, 0.1666088104248047, -0.20598134398460388, -0.17662134766578674, 0.029036957770586014, -0.03482280299067497, -0.007151777856051922, 0.1696251481771469, 0.3249795734882355, 0.1429913192987442, -0.009596941992640495, -0.38168466091156006, 0.08681369572877884, -0.09830974787473679, -0.08887775242328644, 0.06573841720819473, -0.41491976380348206, 0.11657265573740005, 0.2200779765844345, 0.0358615405857563, 0.035116128623485565, 0.016050778329372406, 0.25091367959976196, 0.123586505651474, 0.09562953561544418, 0.1490165740251541, -0.07017000764608383, -0.17888766527175903, 0.5247465372085571, 0.054082129150629044, 0.0586303286254406, -0.03416222333908081, -0.026020679622888565, 0.063631072640419, 0.04024418070912361, -0.14246134459972382, 0.32638734579086304, 0.136050283908844, -0.14041495323181152, -0.0530581921339035, 0.31242111325263977, 0.025441503152251244, -0.8566407561302185], [0.0984005331993103, -0.2622622847557068, 0.18010249733924866, -0.003981997258961201, 0.08558731526136398, -0.2024705559015274, 0.21430423855781555, -0.049343861639499664, 0.08895383775234222, -0.01729729399085045, 0.26328012347221375, 0.07073643803596497, 0.22435449063777924, 0.391604483127594, 0.671575129032135, 0.06014292314648628, 0.1487288773059845, 0.0248942319303751, 0.20515212416648865, 0.024551039561629295, 0.026618199422955513, 0.12517119944095612, 0.23719552159309387, -0.42518845200538635, -0.24681738018989563, 0.035654887557029724, -0.021638840436935425, 0.10325568169355392, 0.14145413041114807, 0.1855112463235855, -0.04057319089770317, 0.040700752288103104, -0.2709724009037018, 0.17541928589344025, -0.21507422626018524, 0.11187531054019928, -0.029597792774438858, -0.25273022055625916, 0.021655943244695663, 0.09508602321147919, 0.09577995538711548, -1.0392178297042847, 0.14193972945213318, 0.17517927289009094, 0.26509419083595276, 0.3085879981517792, 0.14133772253990173, -0.15499518811702728, -0.056275852024555206, 2.3093392848968506, -0.18344396352767944, -0.003692416474223137, -0.01922660879790783, -0.025659257546067238, 0.011429714038968086, -0.00281052989885211, -0.11335583031177521, 1.7066044807434082, 0.21079856157302856, 0.025916604325175285, -0.09974449872970581, 0.07912500202655792, -0.19797644019126892, 0.5706926584243774], [-0.20554238557815552, -0.10601139813661575, -0.10047905892133713, -0.04107075557112694, 0.04445559158921242, 0.01942245289683342, -0.016966184601187706, -0.004261779598891735, -0.2041887491941452, -0.3091769516468048, 0.1323484629392624, 0.419263631105423, -0.16618803143501282, -0.16401948034763336, -0.2666754424571991, -0.0897495225071907, -0.009719966910779476, 0.0657857358455658, -0.10452268272638321, 0.17953340709209442, -0.07136078923940659, -0.3548423945903778, -0.03365716338157654, -0.05832313373684883, 0.02156590297818184, -0.0527128241956234, -0.040470220148563385, -0.23611119389533997, -0.12580808997154236, 0.030908456072211266, 0.19678619503974915, 0.15536925196647644, -0.008128898218274117, -0.04600144550204277, 0.12622886896133423, -0.054208219051361084, -0.05444420874118805, 0.1513865441083908, -0.015427718870341778, -0.008783690631389618, -0.07428652793169022, -0.19553086161613464, -0.002889500930905342, 0.04102243110537529, 0.13359946012496948, -0.15951916575431824, 0.05773145332932472, -0.2303617298603058, 0.28724902868270874, -1.0287761688232422, 0.021397722885012627, 0.017049353569746017, 0.007045735139399767, 0.016826270148158073, -0.05466922000050545, -0.12116251140832901, 0.06607338041067123, -0.9600870609283447, -0.13648287951946259, 0.019707389175891876, -0.01521037146449089, 0.04739152640104294, -0.011468762531876564, -0.7313708662986755], [-0.013589823618531227, -0.2005496323108673, -0.021467935293912888, 0.13863305747509003, -0.009572983719408512, -0.014355949126183987, 0.4259423315525055, 0.027605198323726654, 0.3637298345565796, 0.07641242444515228, -0.23322953283786774, -0.385926753282547, 0.0348082110285759, 0.9113172292709351, -0.08559384942054749, -0.05627487227320671, 0.027300547808408737, 0.03361170366406441, 0.10973100364208221, -0.0199558325111866, 0.017220882698893547, -0.2438141256570816, 0.0353032611310482, 0.12371893227100372, 0.00910748541355133, 0.018205037340521812, 0.08620170503854752, 0.10222320258617401, -0.000913584022782743, 0.1623387485742569, 0.036709535866975784, -0.05731708183884621, 0.01686762645840645, 0.20039516687393188, -0.1189759150147438, 0.3928392231464386, -0.22809536755084991, -0.08221781998872757, 0.16797561943531036, -0.37680137157440186, -0.06486697494983673, 0.10658524930477142, 0.0039843120612204075, 0.09670771658420563, -0.1131746843457222, 0.09566017240285873, -0.013805964030325413, 0.15831494331359863, -0.4376969337463379, -1.1460862159729004, 0.21992874145507812, -0.1531200110912323, 0.05751417204737663, 0.025039322674274445, 0.03879131004214287, 0.2722286581993103, 0.019921643659472466, 0.2512136995792389, -0.021008890122175217, -0.08827883750200272, 0.010880257934331894, 0.09586433321237564, 0.008788375183939934, -0.3267647922039032], [-0.038532957434654236, 0.03126977011561394, -0.0997360423207283, 0.36860132217407227, -0.003897405695170164, 0.020967744290828705, 0.8459317088127136, -0.014639037661254406, 0.32009267807006836, 0.18016955256462097, 0.002729251282289624, -0.290425568819046, -0.10493753105401993, 0.12914469838142395, 0.21318887174129486, -0.139451801776886, 0.576871931552887, -0.007116982713341713, -0.03327369689941406, 0.07441935688257217, 0.043382201343774796, -0.21024051308631897, -0.013246421702206135, -0.23461215198040009, -0.020433345809578896, -0.0012501711025834084, 0.047783538699150085, -0.08438783138990402, -0.03755314648151398, -0.23494605720043182, -0.04737197607755661, -0.019284740090370178, -0.05798811838030815, -0.10936805605888367, -0.11657963693141937, -0.07611288875341415, -0.05685281753540039, -0.009171271696686745, 0.018224434927105904, 0.1373380571603775, -0.020810876041650772, -0.16928493976593018, 0.03529277443885803, 0.10706737637519836, -0.09584783762693405, 0.00033797556534409523, -0.103549063205719, -0.2903197705745697, 0.01002447959035635, 0.6643031239509583, -0.16123586893081665, 0.003232182003557682, 0.006328831426799297, -0.005124006886035204, -0.11198382824659348, -0.28310149908065796, -0.029032718390226364, -1.2176027297973633, -0.061086274683475494, 0.0051689064130187035, 0.008557483553886414, 0.1867862492799759, 0.21917463839054108, 0.30322930216789246], [-0.18307232856750488, 0.09463389962911606, -0.074501171708107, -0.09935177117586136, 0.04680205136537552, 0.05030246451497078, -0.00011056100629502907, -0.005605477374047041, -0.09857390075922012, -0.21935966610908508, 0.11991097778081894, 0.24083209037780762, -0.27964356541633606, 0.046842195093631744, 0.09395226091146469, 0.04381584748625755, -0.008620774373412132, 0.005331465508788824, -0.06591227650642395, -0.009688210673630238, 0.06349825114011765, -0.39755526185035706, -0.023144396021962166, 0.19276776909828186, -0.08944234251976013, -0.09738462418317795, 0.045953843742609024, -0.0741259828209877, -0.0655396431684494, -0.008772541768848896, 0.2575366795063019, 0.018219973891973495, 0.27216824889183044, -0.046381060034036636, 0.3596864938735962, -0.002298633335158229, -0.1347198486328125, 0.07715630531311035, 0.002030626405030489, 0.15761849284172058, 0.050047826021909714, -0.5871222019195557, 0.005222950596362352, -0.24956074357032776, 0.057921152561903, -0.07381106913089752, -0.03906043991446495, 0.13495765626430511, -0.013353092595934868, -0.48028284311294556, -0.34253475069999695, 0.10586197674274445, 0.010630319826304913, -0.07826349884271622, -0.2415611445903778, 0.06016248092055321, 0.17106850445270538, -0.9040313959121704, -0.04841919243335724, 0.41293632984161377, 0.04187103360891342, -0.06559491902589798, -0.109656922519207, 0.03832085430622101], [-0.21259546279907227, -0.0955568179488182, 0.14945802092552185, -0.06031937152147293, -0.05349259823560715, -0.054631732404232025, -0.025178739801049232, -0.23119786381721497, -0.014261394739151001, -0.17056602239608765, -0.14215901494026184, 0.0833287313580513, 0.20132464170455933, 0.14832407236099243, 0.6161720752716064, 0.07633394002914429, 0.05987034738063812, 0.019001422449946404, 0.12051809579133987, -0.01977967843413353, 0.004270574077963829, 0.09379158914089203, 0.1094738095998764, -0.16779997944831848, -0.2504396438598633, 0.02329564094543457, 0.051800765097141266, 0.01727239601314068, 0.0817936360836029, 0.17430433630943298, -0.009530743584036827, -0.022709492594003677, -0.20483925938606262, 0.07361316680908203, -0.14662984013557434, 0.04940205067396164, -0.17367257177829742, -0.334725946187973, 0.15048500895500183, 0.03576928749680519, 0.009248537011444569, -0.5723978877067566, -0.00023483530094381422, 0.28810790181159973, 0.25828030705451965, 0.37776559591293335, 0.12648598849773407, 0.021521057933568954, -0.022071940824389458, 1.7402007579803467, 0.02873140387237072, 0.02226865291595459, 0.01782306656241417, -0.18541283905506134, 0.19088859856128693, 0.02442176453769207, -0.01700354740023613, 1.5689393281936646, 0.05057743936777115, 0.044645532965660095, -0.1168772354722023, 0.09731707721948624, 0.0037437656428664923, -0.4713287949562073], [-0.05248066037893295, -0.09069108217954636, -0.020573114976286888, -0.06840696930885315, -0.023247381672263145, 0.05859581008553505, -0.13785403966903687, 0.0008182348683476448, -0.0720926821231842, -0.22177177667617798, 0.2605329751968384, 0.002763781463727355, 0.12900103628635406, -0.21767333149909973, -0.6653386354446411, -0.04107479006052017, 0.025775281712412834, 0.020419487729668617, -0.10894910991191864, 0.061836034059524536, 0.02709962986409664, -0.12682126462459564, -0.14566420018672943, 0.10795365273952484, -0.003374897874891758, -0.11065243929624557, 0.022000059485435486, -0.06783748418092728, 0.05317923426628113, 0.07161101698875427, 0.025916682556271553, 0.17380067706108093, -0.20996765792369843, 0.055348094552755356, 0.05928852781653404, 0.09441260248422623, -0.005685201846063137, 0.05705985799431801, 0.019900398328900337, -0.24013592302799225, -0.14014627039432526, 0.25609302520751953, 0.031511660665273666, 0.14418147504329681, 0.027259711176156998, -0.0785256177186966, -0.016992004588246346, 0.045477066189050674, -0.23792056739330292, -1.2659854888916016, -0.6755989193916321, 0.18052664399147034, 0.06344044953584671, 0.0017326175002381206, 0.09388945251703262, 0.049095652997493744, 0.3970527648925781, -0.9432106018066406, -0.24642592668533325, -0.23978444933891296, -0.007685432210564613, 0.20937739312648773, 0.07973158359527588, 0.7992855906486511], [0.021961083635687828, 0.06759975105524063, -0.11301138997077942, -0.11531515419483185, -0.009036549367010593, -0.021906012669205666, 0.12087766081094742, 0.01504797488451004, -0.24889983236789703, -0.32217761874198914, 0.05729502812027931, 0.41283708810806274, -0.0631796345114708, -0.0683007761836052, -1.0346766710281372, -0.04370744153857231, -0.03659866377711296, 0.019092530012130737, -0.044452302157878876, 0.021935703232884407, -0.12708263099193573, -0.20786945521831512, 0.012408500537276268, -0.09747504442930222, -0.008737324737012386, -0.002159076277166605, -0.03878343477845192, -0.07947307080030441, -0.11555252224206924, 0.11589545756578445, 0.17989161610603333, 0.08968830108642578, -0.16379790008068085, -0.059311799705028534, 0.05946749821305275, -0.001865493250079453, 0.06607040017843246, 0.06693045049905777, -0.015779471024870872, 0.03704256936907768, -0.14087525010108948, -0.3498806357383728, 0.04093831777572632, 0.18651790916919708, 0.01396212913095951, -0.0723281130194664, 0.03585822880268097, -0.34594133496284485, -0.09553011506795883, -2.221865177154541, -0.003016415983438492, -0.07467249780893326, 0.002109385561197996, -0.01898384839296341, 0.0017281975597143173, -0.06598237156867981, 0.09217678755521774, -1.376915693283081, -0.2544420063495636, -0.02080567181110382, 0.013993018306791782, 0.2542782425880432, -0.05800268054008484, -0.8288164138793945], [0.1256994605064392, 0.6296402812004089, 0.12803104519844055, 0.25441795587539673, -0.03071051649749279, 0.02277151495218277, -0.033736541867256165, 0.012390585616230965, 0.14536882936954498, 0.24157145619392395, 0.025583090260624886, 0.2637462615966797, -0.2405666559934616, -1.1944096088409424, 0.23635002970695496, 0.06559520959854126, -0.07212161272764206, 0.04284944385290146, -0.15135900676250458, -0.06195015460252762, 0.09910239279270172, -0.11164011806249619, -0.07183392345905304, 0.18609878420829773, 0.0010759581346064806, -0.10413321852684021, -0.17225104570388794, 0.18867820501327515, 0.12438192963600159, 0.31579262018203735, 0.02020440623164177, -0.14904946088790894, 0.05200614035129547, -0.11533943563699722, 0.13171857595443726, -0.1792696714401245, 0.0349641889333725, -0.10230328142642975, -0.15058642625808716, 0.013245461508631706, -0.15458956360816956, 0.08463620394468307, 0.052777837961912155, -0.11515264213085175, -0.07108970731496811, 0.10803885012865067, 0.0028314690571278334, -0.21940909326076508, -0.05340242385864258, -0.6238903999328613, 0.3961741030216217, -0.40015581250190735, 0.31123700737953186, 0.03488302230834961, 0.1713939607143402, 0.12358199059963226, 0.019616683945059776, -0.9774796962738037, 0.14915762841701508, 0.026294639334082603, 0.01257302239537239, 0.01382960844784975, -0.05517762154340744, 0.10836757719516754], [0.11676560342311859, -0.30841851234436035, 0.08620166033506393, -0.4287036061286926, -0.02283834107220173, 0.003212697571143508, 0.4207288920879364, 0.015964198857545853, -0.4076734781265259, -0.14752189815044403, 0.6683323383331299, 0.4737436771392822, -0.07297970354557037, 0.0037876407150179148, -0.5744866132736206, -0.040231846272945404, 0.02910430170595646, -0.004195662215352058, 0.034874096512794495, 0.008588021621108055, -0.08519218116998672, -0.27837368845939636, 0.0628557950258255, -0.02326301299035549, 0.047272905707359314, 0.031979210674762726, -0.012984496541321278, -0.034768059849739075, 0.003165747504681349, 0.0180413369089365, -0.10384498536586761, 0.29494011402130127, -0.18223345279693604, 0.19024312496185303, -0.029008962213993073, 0.09586367756128311, -0.0037979905027896166, 0.09089769423007965, -0.11248039454221725, 0.13813774287700653, 0.005148730706423521, -0.6127002239227295, 0.027870990335941315, 0.02682541310787201, 0.01683407835662365, -0.08333972096443176, -0.12546074390411377, -0.2482425421476364, -0.214200958609581, -2.5987303256988525, -0.22494131326675415, -0.08357591181993484, 0.0275795329362154, 0.031941015273332596, 0.06987487524747849, 0.10020908713340759, 0.37409496307373047, -3.4462456703186035, -0.09090031683444977, -0.15644347667694092, -0.011768024414777756, 0.3007858693599701, -0.07372858375310898, 0.01939929462969303], [0.06786760687828064, -0.05262815207242966, 0.06940823793411255, 0.022622518241405487, -0.1371147781610489, 0.007018892094492912, 0.10523145645856857, -0.05484702065587044, 0.21467097103595734, 0.030618904158473015, -0.04273408278822899, -0.0752958357334137, 0.18622183799743652, -0.052130162715911865, 0.14942629635334015, 0.10422942042350769, 0.1021323874592781, -0.05984732136130333, 0.15224772691726685, -0.3072388172149658, 0.27254143357276917, 0.16035999357700348, -0.14582140743732452, -0.07414187490940094, -0.03394700586795807, 0.25010862946510315, 0.25206708908081055, -0.0744783952832222, 0.13336920738220215, -0.023230358958244324, 0.1239866092801094, 0.13759467005729675, 0.08218996971845627, 0.1625591516494751, -0.009327632375061512, 0.05484279990196228, -0.13977046310901642, 0.04642414301633835, 0.10157816857099533, 0.12648321688175201, -0.006157271564006805, -0.48217180371284485, -0.007186854723840952, -0.04398009926080704, 0.10286592692136765, -0.16080783307552338, 0.10572600364685059, 0.14355124533176422, 0.254718154668808, 0.23142167925834656, -0.005234232172369957, -0.06893787533044815, 0.021084554493427277, 0.21977998316287994, 0.06269053369760513, 0.08438936620950699, 0.009141287766397, 0.08963339030742645, 0.11763550341129303, 0.16504521667957306, 0.19330669939517975, 0.010108749382197857, 0.05559355765581131, -0.30899760127067566], [-0.3758732080459595, 0.248590886592865, -0.10464298725128174, 0.26719433069229126, -0.029564574360847473, 0.0005204649642109871, 0.1329410970211029, 0.00681670755147934, 0.11230629682540894, -0.8282536268234253, -0.024900807067751884, 0.3564660847187042, 0.38940098881721497, 0.13957320153713226, 0.29211804270744324, -0.04924192652106285, 0.00038166510057635605, 0.0640864446759224, 0.029791606590151787, 0.02340499497950077, 0.07089518755674362, -0.15411712229251862, 0.01636352390050888, 0.03799663856625557, 0.010843915864825249, 0.07402712851762772, 0.00971838179975748, -0.013896383345127106, -0.05580243840813637, 0.07054769992828369, 0.07573298364877701, -0.10471406579017639, 0.02052752673625946, -0.2962646186351776, 0.01020478829741478, 0.14474454522132874, -0.08835863322019577, -0.11854097992181778, 0.12588605284690857, -0.0328303761780262, -0.05254566669464111, -0.08673816919326782, -0.05183637514710426, 0.021273255348205566, -0.03945557400584221, 0.12287937849760056, 0.14388476312160492, -1.0398989915847778, -0.017398463562130928, 0.9857853651046753, 0.2846681773662567, -0.0669718012213707, 0.0030499103013426065, -0.0027581711765378714, -0.0004937811754643917, -1.1090006828308105, 0.031893420964479446, -0.7665752172470093, 0.08229392021894455, -0.06122562289237976, -0.014936776831746101, -0.1947317123413086, -0.04117355868220329, 0.41011908650398254]], "fc2.bias": [0.22001293301582336, 0.18097904324531555, -0.15692274272441864, 0.037229832261800766, -0.4267912209033966, 0.03893452137708664, -0.5000749230384827, 0.11625572293996811, 0.05905010551214218, 0.21037183701992035, 0.2551855146884918, -0.5452569127082825, 0.2819124758243561, 0.1901787370443344, 0.11670269072055817, -0.14115387201309204, -0.27064135670661926, -0.007743097376078367, 0.15132953226566315, 0.08314399421215057, 0.10268392413854599, 0.38502994179725647, -0.10660340636968613, -0.5323830246925354, 0.23982802033424377, 0.09356780350208282, 0.054063405841588974, 0.2978912889957428, 0.16675154864788055, -0.1808154135942459, 0.21667082607746124, -0.10871770232915878], "fc3.weight": [[0.23375125229358673, -0.4136345088481903, -0.31479984521865845, 0.22299203276634216, -0.3418542146682739, 0.2945425808429718, -0.5624615550041199, -0.3350358307361603, -0.38133394718170166, 0.18919891119003296, 0.207933709025383, -0.6200103163719177, 0.1666821986436844, 0.21884684264659882, 0.3002376854419708, 0.4953606426715851, -0.30461782217025757, -0.37921303510665894, 0.17841045558452606, -0.33167290687561035, -0.23931027948856354, 0.4989515542984009, -0.5001174211502075, -0.8357862830162048, 0.31024056673049927, -0.3658062219619751, 0.3565167188644409, 0.5889655947685242, -0.384759783744812, 0.7622682452201843, 0.14637690782546997, 0.8080485463142395]], "fc3.bias": [-0.049999531358480453]}